<?xml version="1.0"?>
<opencv_storage>
<cascade>
  <stageType>BOOST</stageType>
  <featureType>HAAR</featureType>
  <height>20</height>
  <width>20</width>
  <stageParams>
    <boostType>GAB</boostType>
    <minHitRate>9.9500000476837158e-01</minHitRate>
    <maxFalseAlarm>5.0000000000000000e-01</maxFalseAlarm>
    <weightTrimRate>9.4999999999999996e-01</weightTrimRate>
    <maxDepth>1</maxDepth>
    <maxWeakCount>100</maxWeakCount></stageParams>
  <featureParams>
    <maxCatCount>0</maxCatCount>
    <featSize>1</featSize>
    <mode>BASIC</mode></featureParams>
  <stageNum>9</stageNum>
  <stages>
    <!-- stage 0 -->
    <_>
      <maxWeakCount>3</maxWeakCount>
      <stageThreshold>-8.0365031957626343e-01</stageThreshold>
      <weakClassifiers>
        <_>
          <internalNodes>
            0 -1 2 2.1636050194501877e-02</internalNodes>
          <leafValues>
            -7.7850162982940674e-01 9.0893763303756714e-01</leafValues></_>
        <_>
          <internalNodes>
            0 -1 12 -2.7691490948200226e-02</internalNodes>
          <leafValues>
            8.5038030147552490e-01 -7.2083783149719238e-01</leafValues></_>
        <_>
          <internalNodes>
            0 -1 19 6.3078776001930237e-03</internalNodes>
          <leafValues>
            -9.0051078796386719e-01 6.9568914175033569e-01</leafValues></_></weakClassifiers></_>
    <!-- stage 1 -->
    <_>
      <maxWeakCount>3</maxWeakCount>
      <stageThreshold>-8.3085954189300537e-01</stageThreshold>
      <weakClassifiers>
        <_>
          <internalNodes>
            0 -1 7 -3.5576216876506805e-02</internalNodes>
          <leafValues>
            8.7195467948913574e-01 -6.8342244625091553e-01</leafValues></_>
        <_>
          <internalNodes>
            0 -1 4 5.3643949329853058e-02</internalNodes>
          <leafValues>
            -7.4779391288757324e-01 7.8870320320129395e-01</leafValues></_>
        <_>
          <internalNodes>
            0 -1 11 5.8958129957318306e-03</internalNodes>
          <leafValues>
            -9.4184982776641846e-01 6.0035687685012817e-01</leafValues></_></weakClassifiers></_>
    <!-- stage 2 -->
    <_>
      <maxWeakCount>3</maxWeakCount>
      <stageThreshold>-7.5645780563354492e-01</stageThreshold>
      <weakClassifiers>
        <_>
          <internalNodes>
            0 -1 1 6.3912212848663330e-02</internalNodes>
          <leafValues>
            -7.8855723142623901e-01 8.0907171964645386e-01</leafValues></_>
        <_>
          <internalNodes>
            0 -1 8 5.9700280427932739e-02</internalNodes>
          <leafValues>
            -7.0179492235183716e-01 8.1044018268585205e-01</leafValues></_>
        <_>
          <internalNodes>
            0 -1 21 2.3915914818644524e-02</internalNodes>
          <leafValues>
            -7.4308872222900391e-01 7.3389428853988647e-01</leafValues></_></weakClassifiers></_>
    <!-- stage 3 -->
    <_>
      <maxWeakCount>3</maxWeakCount>
      <stageThreshold>-8.3355879783630371e-01</stageThreshold>
      <weakClassifiers>
        <_>
          <internalNodes>
            0 -1 18 1.4374651014804840e-02</internalNodes>
          <leafValues>
            -6.9917744398117065e-01 8.0854517221450806e-01</leafValues></_>
        <_>
          <internalNodes>
            0 -1 13 1.5065723098814487e-02</internalNodes>
          <leafValues>
            -7.9862093925476074e-01 6.6482102870941162e-01</leafValues></_>
        <_>
          <internalNodes>
            0 -1 22 -3.8397300988435745e-02</internalNodes>
          <leafValues>
            6.6423958539962769e-01 -6.4598953723907471e-01</leafValues></_></weakClassifiers></_>
    <!-- stage 4 -->
    <_>
      <maxWeakCount>2</maxWeakCount>
      <stageThreshold>-1.5414273738861084e-01</stageThreshold>
      <weakClassifiers>
        <_>
          <internalNodes>
            0 -1 14 -4.4479202479124069e-03</internalNodes>
          <leafValues>
            6.7121994495391846e-01 -9.0987867116928101e-01</leafValues></_>
        <_>
          <internalNodes>
            0 -1 3 4.2947702109813690e-02</internalNodes>
          <leafValues>
            -6.6545015573501587e-01 7.5573593378067017e-01</leafValues></_></weakClassifiers></_>
    <!-- stage 5 -->
    <_>
      <maxWeakCount>1</maxWeakCount>
      <stageThreshold>7.0761907100677490e-01</stageThreshold>
      <weakClassifiers>
        <_>
          <internalNodes>
            0 -1 10 2.1975454874336720e-03</internalNodes>
          <leafValues>
            -9.7666668891906738e-01 7.0761907100677490e-01</leafValues></_></weakClassifiers></_>
    <!-- stage 6 -->
    <_>
      <maxWeakCount>2</maxWeakCount>
      <stageThreshold>-1.4054284989833832e-01</stageThreshold>
      <weakClassifiers>
        <_>
          <internalNodes>
            0 -1 6 1.4406683854758739e-02</internalNodes>
          <leafValues>
            7.3575639724731445e-01 -9.0060240030288696e-01</leafValues></_>
        <_>
          <internalNodes>
            0 -1 5 8.6128301918506622e-02</internalNodes>
          <leafValues>
            -6.4298528432846069e-01 7.6005953550338745e-01</leafValues></_></weakClassifiers></_>
    <!-- stage 7 -->
    <_>
      <maxWeakCount>4</maxWeakCount>
      <stageThreshold>-4.8587507009506226e-01</stageThreshold>
      <weakClassifiers>
        <_>
          <internalNodes>
            0 -1 17 6.2523283995687962e-03</internalNodes>
          <leafValues>
            6.5935605764389038e-01 -9.2100536823272705e-01</leafValues></_>
        <_>
          <internalNodes>
            0 -1 9 -2.6918845251202583e-03</internalNodes>
          <leafValues>
            5.0653725862503052e-01 -9.1553509235382080e-01</leafValues></_>
        <_>
          <internalNodes>
            0 -1 15 3.0352957546710968e-02</internalNodes>
          <leafValues>
            -7.0392233133316040e-01 6.6525542736053467e-01</leafValues></_>
        <_>
          <internalNodes>
            0 -1 23 -7.3465257883071899e-03</internalNodes>
          <leafValues>
            6.3251537084579468e-01 -6.6374862194061279e-01</leafValues></_></weakClassifiers></_>
    <!-- stage 8 -->
    <_>
      <maxWeakCount>3</maxWeakCount>
      <stageThreshold>2.1674464643001556e-01</stageThreshold>
      <weakClassifiers>
        <_>
          <internalNodes>
            0 -1 0 9.1172501444816589e-02</internalNodes>
          <leafValues>
            -5.9294116497039795e-01 7.5891894102096558e-01</leafValues></_>
        <_>
          <internalNodes>
            0 -1 16 -5.0311097875237465e-03</internalNodes>
          <leafValues>
            5.0225955247879028e-01 -9.2174047231674194e-01</leafValues></_>
        <_>
          <internalNodes>
            0 -1 20 1.8228823319077492e-03</internalNodes>
          <leafValues>
            -8.8412100076675415e-01 3.7956619262695312e-01</leafValues></_></weakClassifiers></_></stages>
  <features>
    <_>
      <rects>
        <_>
          0 4 6 15 -1.</_>
        <_>
          3 4 3 15 2.</_></rects>
      <tilted>0</tilted></_>
    <_>
      <rects>
        <_>
          0 6 9 10 -1.</_>
        <_>
          3 6 3 10 3.</_></rects>
      <tilted>0</tilted></_>
    <_>
      <rects>
        <_>
          0 7 4 6 -1.</_>
        <_>
          2 7 2 6 2.</_></rects>
      <tilted>0</tilted></_>
    <_>
      <rects>
        <_>
          0 7 4 7 -1.</_>
        <_>
          2 7 2 7 2.</_></rects>
      <tilted>0</tilted></_>
    <_>
      <rects>
        <_>
          3 0 14 6 -1.</_>
        <_>
          3 3 14 3 2.</_></rects>
      <tilted>0</tilted></_>
    <_>
      <rects>
        <_>
          4 0 12 6 -1.</_>
        <_>
          4 3 12 3 2.</_></rects>
      <tilted>0</tilted></_>
    <_>
      <rects>
        <_>
          4 7 9 8 -1.</_>
        <_>
          4 11 9 4 2.</_></rects>
      <tilted>0</tilted></_>
    <_>
      <rects>
        <_>
          4 16 11 4 -1.</_>
        <_>
          4 18 11 2 2.</_></rects>
      <tilted>0</tilted></_>
    <_>
      <rects>
        <_>
          5 0 11 6 -1.</_>
        <_>
          5 3 11 3 2.</_></rects>
      <tilted>0</tilted></_>
    <_>
      <rects>
        <_>
          5 5 3 6 -1.</_>
        <_>
          5 8 3 3 2.</_></rects>
      <tilted>0</tilted></_>
    <_>
      <rects>
        <_>
          5 6 9 10 -1.</_>
        <_>
          5 11 9 5 2.</_></rects>
      <tilted>0</tilted></_>
    <_>
      <rects>
        <_>
          7 8 6 4 -1.</_>
        <_>
          9 8 2 4 3.</_></rects>
      <tilted>0</tilted></_>
    <_>
      <rects>
        <_>
          7 16 8 4 -1.</_>
        <_>
          7 18 8 2 2.</_></rects>
      <tilted>0</tilted></_>
    <_>
      <rects>
        <_>
          8 1 4 6 -1.</_>
        <_>
          8 3 4 2 3.</_></rects>
      <tilted>0</tilted></_>
    <_>
      <rects>
        <_>
          8 10 5 6 -1.</_>
        <_>
          8 12 5 2 3.</_></rects>
      <tilted>0</tilted></_>
    <_>
      <rects>
        <_>
          8 14 4 6 -1.</_>
        <_>
          8 16 4 2 3.</_></rects>
      <tilted>0</tilted></_>
    <_>
      <rects>
        <_>
          9 5 6 6 -1.</_>
        <_>
          9 5 3 3 2.</_>
        <_>
          12 8 3 3 2.</_></rects>
      <tilted>0</tilted></_>
    <_>
      <rects>
        <_>
          9 8 3 10 -1.</_>
        <_>
          9 13 3 5 2.</_></rects>
      <tilted>0</tilted></_>
    <_>
      <rects>
        <_>
          9 14 3 6 -1.</_>
        <_>
          9 16 3 2 3.</_></rects>
      <tilted>0</tilted></_>
    <_>
      <rects>
        <_>
          12 3 6 6 -1.</_>
        <_>
          12 3 3 3 2.</_>
        <_>
          15 6 3 3 2.</_></rects>
      <tilted>0</tilted></_>
    <_>
      <rects>
        <_>
          12 11 4 4 -1.</_>
        <_>
          14 11 2 4 2.</_></rects>
      <tilted>0</tilted></_>
    <_>
      <rects>
        <_>
          14 8 6 5 -1.</_>
        <_>
          16 8 2 5 3.</_></rects>
      <tilted>0</tilted></_>
    <_>
      <rects>
        <_>
          16 4 4 12 -1.</_>
        <_>
          18 4 2 12 2.</_></rects>
      <tilted>0</tilted></_>
    <_>
      <rects>
        <_>
          18 8 2 7 -1.</_>
        <_>
          19 8 1 7 2.</_></rects>
      <tilted>0</tilted></_></features></cascade>
</opencv_storage>
