<?xml version="1.0"?>
<opencv_storage>
<cascade>
  <stageType>BOOST</stageType>
  <featureType>HAAR</featureType>
  <height>30</height>
  <width>30</width>
  <stageParams>
    <boostType>GAB</boostType>
    <minHitRate>9.9500000476837158e-01</minHitRate>
    <maxFalseAlarm>5.0000000000000000e-01</maxFalseAlarm>
    <weightTrimRate>9.4999999999999996e-01</weightTrimRate>
    <maxDepth>1</maxDepth>
    <maxWeakCount>100</maxWeakCount></stageParams>
  <featureParams>
    <maxCatCount>0</maxCatCount>
    <featSize>1</featSize>
    <mode>BASIC</mode></featureParams>
  <stageNum>4</stageNum>
  <stages>
    <!-- stage 0 -->
    <_>
      <maxWeakCount>3</maxWeakCount>
      <stageThreshold>-6.1502051353454590e-01</stageThreshold>
      <weakClassifiers>
        <_>
          <internalNodes>
            0 -1 4 -2.7355667203664780e-02</internalNodes>
          <leafValues>
            8.8097888231277466e-01 -7.5831484794616699e-01</leafValues></_>
        <_>
          <internalNodes>
            0 -1 1 1.5428587794303894e-02</internalNodes>
          <leafValues>
            -5.7307136058807373e-01 7.8790020942687988e-01</leafValues></_>
        <_>
          <internalNodes>
            0 -1 9 1.1988049373030663e-02</internalNodes>
          <leafValues>
            -5.4833257198333740e-01 7.1636569499969482e-01</leafValues></_></weakClassifiers></_>
    <!-- stage 1 -->
    <_>
      <maxWeakCount>5</maxWeakCount>
      <stageThreshold>-7.9619055986404419e-01</stageThreshold>
      <weakClassifiers>
        <_>
          <internalNodes>
            0 -1 11 -5.2317451685667038e-02</internalNodes>
          <leafValues>
            8.1737685203552246e-01 -6.4613664150238037e-01</leafValues></_>
        <_>
          <internalNodes>
            0 -1 14 6.3711525872349739e-03</internalNodes>
          <leafValues>
            -5.5699431896209717e-01 7.5175428390502930e-01</leafValues></_>
        <_>
          <internalNodes>
            0 -1 6 -2.1311024203896523e-02</internalNodes>
          <leafValues>
            7.7317422628402710e-01 -5.2008903026580811e-01</leafValues></_>
        <_>
          <internalNodes>
            0 -1 2 -1.4920867215550970e-05</internalNodes>
          <leafValues>
            4.3502596020698547e-01 -9.3501448631286621e-01</leafValues></_>
        <_>
          <internalNodes>
            0 -1 10 2.2732098586857319e-03</internalNodes>
          <leafValues>
            -6.9903528690338135e-01 4.9200347065925598e-01</leafValues></_></weakClassifiers></_>
    <!-- stage 2 -->
    <_>
      <maxWeakCount>2</maxWeakCount>
      <stageThreshold>-2.1858692169189453e-01</stageThreshold>
      <weakClassifiers>
        <_>
          <internalNodes>
            0 -1 3 -5.6764138862490654e-03</internalNodes>
          <leafValues>
            -8.8628762960433960e-01 6.8030446767807007e-01</leafValues></_>
        <_>
          <internalNodes>
            0 -1 12 6.5227253362536430e-03</internalNodes>
          <leafValues>
            -6.8641173839569092e-01 6.6770070791244507e-01</leafValues></_></weakClassifiers></_>
    <!-- stage 3 -->
    <_>
      <maxWeakCount>5</maxWeakCount>
      <stageThreshold>-5.8659553527832031e-01</stageThreshold>
      <weakClassifiers>
        <_>
          <internalNodes>
            0 -1 0 2.8558887541294098e-02</internalNodes>
          <leafValues>
            -4.3785852193832397e-01 8.2103991508483887e-01</leafValues></_>
        <_>
          <internalNodes>
            0 -1 7 -2.3622852750122547e-03</internalNodes>
          <leafValues>
            7.0033824443817139e-01 -5.5864405632019043e-01</leafValues></_>
        <_>
          <internalNodes>
            0 -1 13 4.3002264574170113e-03</internalNodes>
          <leafValues>
            -6.2554460763931274e-01 6.3102036714553833e-01</leafValues></_>
        <_>
          <internalNodes>
            0 -1 5 9.5519190654158592e-04</internalNodes>
          <leafValues>
            -7.3175615072250366e-01 4.6937814354896545e-01</leafValues></_>
        <_>
          <internalNodes>
            0 -1 8 3.6872625350952148e-02</internalNodes>
          <leafValues>
            -6.0596215724945068e-01 5.6607353687286377e-01</leafValues></_></weakClassifiers></_></stages>
  <features>
    <_>
      <rects>
        <_>
          0 9 6 15 -1.</_>
        <_>
          3 9 3 15 2.</_></rects>
      <tilted>0</tilted></_>
    <_>
      <rects>
        <_>
          0 12 9 8 -1.</_>
        <_>
          3 12 3 8 3.</_></rects>
      <tilted>0</tilted></_>
    <_>
      <rects>
        <_>
          5 8 18 5 -1.</_>
        <_>
          14 8 9 5 2.</_></rects>
      <tilted>0</tilted></_>
    <_>
      <rects>
        <_>
          8 8 18 6 -1.</_>
        <_>
          17 8 9 6 2.</_></rects>
      <tilted>0</tilted></_>
    <_>
      <rects>
        <_>
          8 13 15 5 -1.</_>
        <_>
          13 13 5 5 3.</_></rects>
      <tilted>0</tilted></_>
    <_>
      <rects>
        <_>
          9 12 3 7 -1.</_>
        <_>
          10 12 1 7 3.</_></rects>
      <tilted>0</tilted></_>
    <_>
      <rects>
        <_>
          9 24 10 6 -1.</_>
        <_>
          9 27 10 3 2.</_></rects>
      <tilted>0</tilted></_>
    <_>
      <rects>
        <_>
          10 10 4 4 -1.</_>
        <_>
          10 10 2 2 2.</_>
        <_>
          12 12 2 2 2.</_></rects>
      <tilted>0</tilted></_>
    <_>
      <rects>
        <_>
          10 21 11 9 -1.</_>
        <_>
          10 24 11 3 3.</_></rects>
      <tilted>0</tilted></_>
    <_>
      <rects>
        <_>
          11 8 9 6 -1.</_>
        <_>
          11 10 9 2 3.</_></rects>
      <tilted>0</tilted></_>
    <_>
      <rects>
        <_>
          11 9 9 3 -1.</_>
        <_>
          11 10 9 1 3.</_></rects>
      <tilted>0</tilted></_>
    <_>
      <rects>
        <_>
          13 5 5 21 -1.</_>
        <_>
          13 12 5 7 3.</_></rects>
      <tilted>0</tilted></_>
    <_>
      <rects>
        <_>
          13 23 4 6 -1.</_>
        <_>
          13 25 4 2 3.</_></rects>
      <tilted>0</tilted></_>
    <_>
      <rects>
        <_>
          17 9 4 8 -1.</_>
        <_>
          17 9 2 4 2.</_>
        <_>
          19 13 2 4 2.</_></rects>
      <tilted>0</tilted></_>
    <_>
      <rects>
        <_>
          23 14 6 5 -1.</_>
        <_>
          25 14 2 5 3.</_></rects>
      <tilted>0</tilted></_></features></cascade>
</opencv_storage>
